digraph Tree {
node [shape=box, style="filled, rounded", color="black", fontname="helvetica"] ;
graph [ranksep=equally, splines=polyline] ;
edge [fontname="helvetica"] ;
0 [label=<user_tag_career &le; 0.5<br/>gini = 0.92<br/>samples = 20<br/>value = [2, 1, 1, 1, 1, 1, 1, 2, 2, 2, 1, 2, 2, 1]<br/>class = baby shower>, fillcolor="#ffffff"] ;
1 [label=<user_tag_education &le; 0.5<br/>0.914<br/>18<br/>[2, 1, 1, 1, 1, 1, 1, 2, 2, 0, 1, 2, 2, 1]<br/>baby shower>, fillcolor="#ffffff"] ;
0 -> 1 [labeldistance=2.5, labelangle=45, headlabel="True"] ;
2 [label=<user_tag_food &le; 0.5<br/>0.906<br/>16<br/>[2, 1, 1, 1, 1, 1, 1, 2, 2, 0, 1, 0, 2, 1]<br/>baby shower>, fillcolor="#ffffff"] ;
1 -> 2 ;
3 [label=<file_extension_presentation &le; 0.5<br/>0.898<br/>14<br/>[2, 1, 1, 1, 1, 1, 1, 2, 0, 0, 1, 0, 2, 1]<br/>baby shower>, fillcolor="#ffffff"] ;
2 -> 3 ;
4 [label=<user_tag_pet &le; 0.5<br/>0.889<br/>12<br/>[2, 1, 1, 1, 1, 1, 1, 0, 0, 0, 1, 0, 2, 1]<br/>baby shower>, fillcolor="#ffffff"] ;
3 -> 4 ;
5 [label=<user_tag_celebration &le; 0.5<br/>0.864<br/>9<br/>[2, 1, 0, 1, 1, 1, 1, 0, 0, 0, 1, 0, 0, 1]<br/>baby shower>, fillcolor="#fcefe6"] ;
4 -> 5 ;
6 [label=<filename_fitness_workout.mp4 &le; 0.5<br/>0.833<br/>6<br/>[0, 1, 0, 1, 0, 1, 1, 0, 0, 0, 1, 0, 0, 1]<br/>birthday>, fillcolor="#ffffff"] ;
5 -> 6 ;
7 [label=<filename_shopping_list.xlsx &le; 0.5<br/>0.8<br/>5<br/>[0, 0, 0, 1, 0, 1, 1, 0, 0, 0, 1, 0, 0, 1]<br/>funny>, fillcolor="#ffffff"] ;
6 -> 7 ;
8 [label=<filename_garden_photo.jpg &le; 0.5<br/>0.75<br/>4<br/>[0, 0, 0, 1, 0, 0, 1, 0, 0, 0, 1, 0, 0, 1]<br/>funny>, fillcolor="#ffffff"] ;
7 -> 8 ;
9 [label=<user_tag_work &le; 0.5<br/>0.667<br/>3<br/>[0, 0, 0, 0, 0, 0, 1, 0, 0, 0, 1, 0, 0, 1]<br/>groceries>, fillcolor="#ffffff"] ;
8 -> 9 ;
10 [label=<user_tag_family &le; 0.5<br/>0.5<br/>2<br/>[0, 0, 0, 0, 0, 0, 0, 0, 0, 0, 1, 0, 0, 1]<br/>memory>, fillcolor="#ffffff"] ;
9 -> 10 ;
11 [label=<0.0<br/>1<br/>[0, 0, 0, 0, 0, 0, 0, 0, 0, 0, 0, 0, 0, 1]<br/>report>, fillcolor="#e5393c"] ;
10 -> 11 ;
12 [label=<0.0<br/>1<br/>[0, 0, 0, 0, 0, 0, 0, 0, 0, 0, 1, 0, 0, 0]<br/>memory>, fillcolor="#b139e5"] ;
10 -> 12 ;
13 [label=<0.0<br/>1<br/>[0, 0, 0, 0, 0, 0, 1, 0, 0, 0, 0, 0, 0, 0]<br/>groceries>, fillcolor="#39e5e2"] ;
9 -> 13 ;
14 [label=<0.0<br/>1<br/>[0, 0, 0, 1, 0, 0, 0, 0, 0, 0, 0, 0, 0, 0]<br/>funny>, fillcolor="#6de539"] ;
8 -> 14 ;
15 [label=<0.0<br/>1<br/>[0, 0, 0, 0, 0, 1, 0, 0, 0, 0, 0, 0, 0, 0]<br/>graduation>, fillcolor="#39e598"] ;
7 -> 15 ;
16 [label=<0.0<br/>1<br/>[0, 1, 0, 0, 0, 0, 0, 0, 0, 0, 0, 0, 0, 0]<br/>birthday>, fillcolor="#e5c839"] ;
6 -> 16 ;
17 [label=<file_extension_audio &le; 0.5<br/>0.444<br/>3<br/>[2, 0, 0, 0, 1, 0, 0, 0, 0, 0, 0, 0, 0, 0]<br/>baby shower>, fillcolor="#f2c09c"] ;
5 -> 17 ;
18 [label=<0.0<br/>2<br/>[2, 0, 0, 0, 0, 0, 0, 0, 0, 0, 0, 0, 0, 0]<br/>baby shower>, fillcolor="#e58139"] ;
17 -> 18 ;
19 [label=<0.0<br/>1<br/>[0, 0, 0, 0, 1, 0, 0, 0, 0, 0, 0, 0, 0, 0]<br/>gardening>, fillcolor="#39e54d"] ;
17 -> 19 ;
20 [label=<file_size &le; 10.75<br/>0.444<br/>3<br/>[0, 0, 1, 0, 0, 0, 0, 0, 0, 0, 0, 0, 2, 0]<br/>recipe>, fillcolor="#f29cc2"] ;
4 -> 20 ;
21 [label=<0.0<br/>2<br/>[0, 0, 0, 0, 0, 0, 0, 0, 0, 0, 0, 0, 2, 0]<br/>recipe>, fillcolor="#e53986"] ;
20 -> 21 ;
22 [label=<0.0<br/>1<br/>[0, 0, 1, 0, 0, 0, 0, 0, 0, 0, 0, 0, 0, 0]<br/>exercise>, fillcolor="#b7e539"] ;
20 -> 22 ;
23 [label=<0.0<br/>2<br/>[0, 0, 0, 0, 0, 0, 0, 2, 0, 0, 0, 0, 0, 0]<br/>holiday>, fillcolor="#399de5"] ;
3 -> 23 ;
24 [label=<0.0<br/>2<br/>[0, 0, 0, 0, 0, 0, 0, 0, 2, 0, 0, 0, 0, 0]<br/>learning>, fillcolor="#3956e5"] ;
2 -> 24 ;
25 [label=<0.0<br/>2<br/>[0, 0, 0, 0, 0, 0, 0, 0, 0, 0, 0, 2, 0, 0]<br/>presentation>, fillcolor="#e539d1"] ;
1 -> 25 ;
26 [label=<0.0<br/>2<br/>[0, 0, 0, 0, 0, 0, 0, 0, 0, 2, 0, 0, 0, 0]<br/>meeting>, fillcolor="#6739e5"] ;
0 -> 26 [labeldistance=2.5, labelangle=-45, headlabel="False"] ;
{rank=same ; 0} ;
{rank=same ; 1} ;
{rank=same ; 10} ;
{rank=same ; 2} ;
{rank=same ; 3} ;
{rank=same ; 4} ;
{rank=same ; 5; 20} ;
{rank=same ; 6; 17} ;
{rank=same ; 7} ;
{rank=same ; 8} ;
{rank=same ; 9} ;
{rank=same ; 11; 12; 13; 14; 15; 16; 18; 19; 21; 22; 23; 24; 25; 26} ;
}